27027 100
of 0.29720631 0.40281332 0.24418055 0.9095034 0.36369756 -0.44848475 1.6469254 0.63082224 -0.04426939 -0.8851161 -0.12909146 0.71244061 -1.2241471 -0.046839822 1.1997594 -0.67563224 0.49440405 1.4150603 0.53878164 -0.24542068 -0.40593275 0.53922999 -0.25420853 -1.2502064 0.042258535 -0.36017033 -0.77426732 -0.79004687 0.60074967 0.79406673 -0.30014735 0.68382984 0.91512519 -1.3670961 -0.74506676 0.39137265 0.90009278 -0.43119013 -0.42713359 1.1747563 -0.51539785 0.84777576 -1.2839375 0.56010181 0.6265775 0.78501028 0.50483811 0.85386312 0.61275601 -0.72183126 0.48589167 0.64307773 -0.20585579 -0.90886831 -0.85369146 0.20231044 0.14006113 0.060950033 -0.91233909 1.5503036 0.23453024 0.25987798 0.90434903 1.3910465 0.80001098 -0.66380167 0.22891282 -0.20563503 0.049452778 -0.18648905 0.1358548 -0.021659141 1.0691973 -0.16934311 -0.11092111 0.337419 0.44526926 -0.58378416 0.76477826 0.36054644 0.54601419 -0.64819402 0.33056587 -0.15410976 0.28304541 -0.61496073 -0.78884763 -0.18452409 -0.78489196 0.3929534 -0.60006565 0.42418417 0.020574834 -0.59476233 0.43527302 -0.33397943 -0.89278394 -0.99092424 0.46185124 0.80043542
the 0.31565654 0.032655049 0.20315196 0.48407349 0.02520464 -1.3670373 0.11839832 0.42786086 -0.19701999 -0.076568581 0.002570176 0.34230703 -0.99360722 -0.24065639 1.6394432 -1.1502362 0.49270818 1.0866382 0.65392947 0.41803429 -0.60532987 0.24534912 -0.66077095 -0.33255517 0.24429612 -0.97645253 0.45775914 0.31527495 1.1194187 1.8350486 0.17304888 1.5957036 0.8817687 -1.2798005 -0.51119024 0.53881395 0.35124224 0.56392449 -0.83087862 0.39631119 -1.0399965 1.5001403 -1.7449199 0.066336945 0.79591078 0.22865793 0.28731534 1.0963748 -0.53060967 -0.66246021 0.61017203 -0.17373744 -0.14457284 -0.11694951 -0.91601437 -0.84781057 -0.40538618 0.38767204 -1.0587779 0.4649376 -0.73258764 0.98223686 0.64775741 1.7971041 1.7537588 -0.83232796 -0.90237093 -0.25447929 -0.26447952 0.28604093 0.017224243 0.092030011 0.013843832 0.72050095 -0.41365564 0.23268606 0.8527627 -0.53478706 0.90106517 0.54444855 0.37132338 0.33179441 -0.17878005 -0.21523027 -0.10335392 -0.19996351 -1.2436422 0.17223294 -0.54934126 0.19510452 -0.25495318 0.62394363 -0.8077212 -0.36189672 0.30042058 -0.30413693 -0.73677301 -0.59407949 -0.031101106 0.36582896
in 0.095047131 0.87400788 -0.30712706 0.45028213 0.91893017 -1.1148559 1.172967 0.087370709 0.26903647 -1.3953042 0.016262237 1.2154348 -1.1609073 0.16690792 1.6124922 -0.50177342 0.099489488 1.8646753 0.51695943 -0.5541693 -0.45864356 0.80798233 -0.041187666 -0.57468468 -0.05774748 -0.44204602 -0.32798156 -0.79110706 0.1597649 0.9646849 -0.29689208 0.83790618 0.75271022 -1.7837607 -0.20390709 0.46928132 0.72652936 -0.70351845 -0.68263268 0.79314542 -0.51896328 1.8378491 -1.140901 1.1148632 0.78885895 0.92634726 0.70437264 0.57999212 0.52416193 -0.21360244 0.19596429 0.65717769 -0.16080897 -0.82177448 -0.588337 -0.23257418 0.19572616 0.17740029 -0.90350509 2.0574105 0.11814804 -0.0062059648 0.88936418 0.96127534 0.55237412 -0.83058518 -0.29025769 0.48742369 0.24347256 -0.099008299 0.41134861 -0.25346345 -0.047240436 -0.40761724 -0.52276999 0.31646273 0.69026172 -1.0268793 1.363043 0.31037432 0.61846203 -0.57208043 0.61744815 -0.14493795 0.15680611 -0.99349517 -0.48080269 0.043371983 -0.10639453 0.96497118 -0.15650184 0.57237989 -0.21846868 -0.18018827 0.47005728 -0.53112072 -0.84203398 -0.97765088 0.62234485 0.75495118
and 0.37016028 0.49497569 -0.09638115 0.41849118 0.46253777 -1.0160502 0.88749725 0.030927634 0.066537626 -0.94849986 -0.19807218 1.0950574 -1.0267971 0.02668965 1.1132468 -0.58136559 0.47530007 1.4791551 0.32592818 -0.31023428 -0.5752933 0.64415401 -0.077784456 -0.76874661 0.35361966 -0.27915287 -0.40306613 0.19934982 0.31265491 0.97319603 -0.34936535 0.8316074 0.69838595 -1.3508577 -0.53498459 0.25773278 0.29510704 -0.29010576 -0.31043792 0.50536013 -0.00085273548 0.93172777 -1.5142462 0.66820997 0.53827554 0.94625956 0.41909403 0.56703538 0.36763373 -0.60622591 -0.080696993 0.52761179 0.30341113 -0.65482962 -0.93539792 -0.14012305 0.28071603 0.29818514 -1.1789089 1.0120866 0.13793665 0.65537328 0.96625692 1.2368189 0.76415998 -0.46088675 -0.35411462 -0.43349704 -0.1990661 -0.1378479 0.23215766 0.0869397 0.29017466 0.052028831 -0.031040329 0.49315843 0.41717678 -0.87668008 1.0196553 0.64606303 0.44195521 -0.19726603 0.56774127 -0.061978668 -0.11871856 -0.78161764 -0.41319448 0.077652268 -0.50330895 0.69126093 0.20336229 0.64505678 -0.11003392 -0.33050707 0.17857572 -0.26724938 -0.7768575 -0.78387499 0.012700349 0.48916432